{"weights_ih":{"rows":8,"cols":56,"data":[[0.6091715800036962,0.47256565230972986,-0.3255833220975964,-0.036599403908406575,-0.42409851573358753,-0.028798028943848808,-0.4866802572587074,0.6155599542890955,0.9244975377615506,-0.3422388880211454,-0.3008503367420081,0.6313479397551177,-0.522853620219345,0.95048542091298,0.7212827321344213,1.0294951598385924,1.061755514018746,0.5570373394809883,-0.04014254045076168,0.8321884365362133,0.6085460471003291,0.37398924456928395,0.5602498052216941,0.26596491662518273,-0.02610143346976506,-0.9426867385546136,0.15054133498682393,0.6895444748162919,0.9893781643304895,-0.7685529981284982,-0.5045943131939393,0.2680826941626622,0.6544268732867534,0.8041411580803158,0.7646533499492293,-0.19301911821217677,0.8178428411179691,-0.024229352810096957,1.046238818923097,0.6426855314807981,0.44694463479097585,-0.9503928217128282,0.36104049307842306,0.6505141547278854,-0.5599878762405266,0.31146279826890694,0.2049824152720906,0.8867765470299945,-0.8624660220118056,-0.0010272305150973234,1.0457437625441417,-0.9271531638594516,0.8872769068961102,-0.3597490297181718,-0.9320358928457759,-0.587859430285286],[-0.7617833678355684,-0.006924855700400713,0.9422849308482161,-0.7447296162233052,-0.15452615251765667,0.6401288784397758,0.17037924930580592,0.9126741877105884,-0.09512122989446198,0.9184004499855184,-0.6717058847775306,0.7032908814601644,0.9168983728411345,0.6995854095303037,0.3770458526430798,-0.03574222430775636,0.5793824942463156,0.31761365307350525,-0.9845524454413254,0.8641167621170152,-0.7358678111332309,-0.06396333487280209,0.5064535491696655,0.6100810189065388,0.9941995220992069,0.5257039120299791,-0.6469452899018273,0.7184615305635851,0.8346492320980128,0.2203070415954343,0.6367281851510866,-0.3992930245581252,0.608007384669746,0.18095524605636967,-0.8609842752406649,0.027518293820083948,0.3991108809640582,-0.9362867855573297,-0.5116614046810312,0.23247941237168468,0.8025854728638239,0.6065919909505914,0.1921561095614525,-0.3684391530383803,-0.6486009302159489,0.8879768094984358,-0.3839329392152742,0.3648331627057094,-0.8593314632804092,0.42343887450664874,-0.6479540008223802,-0.5443757048832364,1.0239008779709344,-0.5885922095600401,-0.890094038780115,-0.4474518454041647],[0.8871516024746786,0.5229429795521545,0.8068907692983233,-0.6439766076285461,1.0722050062689288,-0.5600714932738384,0.6013319361308361,0.6343967456642953,-0.5794509886553144,-0.39742000408166295,-0.3412475210007686,0.21023367462833967,-0.25976029653101235,0.6533880563185588,-0.17047782024951166,-0.25155188631034386,-0.13526099433739028,0.5255954042903406,0.1642718646512479,0.744923233041763,0.6520145020090203,-0.1378491992440145,0.35391961901600366,-0.25064748717920804,0.4530533552669538,-0.3587217738156001,-0.658549910587797,0.8205502305551089,-0.5093847053923097,-0.3308353352580487,1.1374949963306127,0.8239925446126087,1.224818303965342,-0.09561631973209175,0.09311607382349076,0.12104435230677488,0.7843765575869546,-0.3836111489908954,-0.00573041124857277,-0.7756770154658098,-0.3299043413858245,0.5015440852377966,-0.7818756502932587,-0.968266649806478,0.827386746381987,-0.20094606293540848,0.8885466355150088,0.9632579316223835,0.5966915312148566,0.009689655945257388,0.6071903911025892,0.6490212472205945,0.5771622725476339,0.7849673555217076,0.19875628873394585,-0.2082287217695804],[-0.28986256739826743,0.2385768336049314,-0.5031198857883684,-0.33357323729999083,-0.5763684356251982,0.9375191130370321,0.6155715873432829,-0.45557679669032214,0.6102304214604226,0.6851929739535725,-0.07681157459567234,-0.46806729483957077,-0.21692066388844913,-0.5140710340883378,0.8014119101801699,0.2806581819817357,-0.3630038053315792,-0.18259800349052002,-0.1241178204201884,-0.9578595098285552,0.3165799672113548,-0.14236536826653395,-0.8187892259532564,-0.022504169912718756,-0.3134992232350271,0.2308437364951358,0.5179533496794563,0.6099680911882224,0.17794939277375074,0.38283190930795197,0.2775110494191405,-0.11681296389399946,-0.9701971095022969,0.7914744681739583,0.20281141749297366,0.41817666042490326,0.1700614112698691,-0.12655522798372826,-0.46805661079273164,0.2392005172241534,-0.7125926261625927,-0.3286722522927649,-0.7678894980160494,-0.4957890876220667,-0.8438422773292439,0.1883639224243328,-0.7666058506006372,-0.417794110189364,-0.24319365450455077,0.5828487540285224,0.8786905995738823,-0.8014295770625327,-0.6632291084410534,0.3431170998391401,-0.8363383833821445,-0.6901459866619637],[0.08289647837791357,-1.2645888603573763,0.7110901767375905,0.5763416162327122,0.41768061461277656,-1.0370658776992474,0.11257338246712299,-0.5272115232789409,0.4985296226110059,-0.31503731831058945,-0.695490678898629,0.21247444693245082,-1.2823900797979486,0.409481093200769,-0.9659350047447867,0.020592918733103233,0.09629364042335928,0.1733699287431256,0.14401806814436652,0.33814382093642736,-0.2851375499880031,-0.031874086064948966,-0.753852168164454,0.5739881460732913,0.3693729720130825,-0.47051097249544405,0.42324113294551635,-0.4235390230351929,-0.2747231925325596,-0.7244628640262559,0.7776006128600406,0.3694890229223269,0.43611745316186845,0.07623057908269991,-0.3416351222118912,0.9707027630718874,-0.9078743571204735,-0.14995728444499626,-0.7704073958930493,-0.3755174033624797,0.6698903393880716,-0.7263827170302715,-0.6109948988151663,0.07003679373301792,0.414993478140482,0.5393311296373919,0.26794344512430374,-0.5150011363360464,0.21554854236792087,-0.7614977587347721,0.39691153462479956,-0.8491873299024982,-1.1324392920428528,0.29049312353869644,-0.468242717113408,0.7784701888981853],[-0.13727215064569942,0.508264780276347,0.35194834854375867,0.019689870723174775,0.5545418844667216,-0.40723433920541496,-0.13938111597256814,0.11523303707305767,-0.817429171893802,0.2860211467568069,0.28310865814556285,0.4671130503325767,1.0567288151941943,1.0564876142975983,-0.7320968429276612,-0.7304863168991582,0.5667712944511106,0.9293623228837502,-0.7122222233564617,-0.41911867505709166,0.1155409270623604,1.044260805123043,-0.32445708692467695,0.025491223289363114,0.7325538974453479,-0.0994297277345448,-0.13613054485393025,-0.4438854153471445,-0.5370877895142292,-0.49677851107369614,1.1597566239698751,-0.24175166385134508,0.27785734787776095,-0.43473933134159065,0.8012914747984486,0.6866923545001185,1.2346721329336356,-0.36936771891203685,1.0220507399960082,0.08602514338486136,-0.13445645386704747,-0.3123826696759241,0.8826355384657872,0.27650034608780716,-0.7005132696490244,-0.6108721609727075,0.531769773073152,-0.542133761176048,-0.6851251138831879,0.1972332293789794,-0.31310635020317995,-0.8978633637476672,-0.7077469616094443,-0.6528625047905375,0.6767382889297688,-0.30967200598735833],[0.1516137317148447,0.20320762804560852,0.5085965931348375,-0.10404559751982823,1.0429372050320822,0.6875620753700697,-0.31789645462386823,1.21729330825502,-0.26963803729775265,-0.48739400492346396,-0.661277328092426,-0.3645041915949872,0.7649286412091771,0.1916394268052722,-0.8640255278882256,-0.7939768761168601,0.3749770401513394,0.9390216698490017,0.2942225551302726,0.9914188516196287,-0.07714820110184335,0.7413353271748035,0.09291716564195517,-0.320392259380128,0.88686155531072,-0.41014087700774193,0.2740564726923959,-0.24275278573653486,0.06935927053265947,-0.85793810739953,-0.5446212799665275,-0.7944629475459107,-0.10404970135892615,-0.11499754920810167,1.200699349473762,-0.878364078205056,1.0535114494433766,-0.5855467609134294,1.1687095317937786,-0.7908584276299376,-0.548617242370514,-0.9381397513531106,0.030718323264158715,-0.39776005111494556,-0.19171127671521823,-0.47971808371826746,1.0871505321086672,-0.2905557746111865,0.12735147546227416,0.18211792425186588,0.641813530109231,-0.4149663236340196,-0.6795442611401155,-0.6346634552961987,0.5598230463847871,-0.19020926413332706],[-0.8366538227669139,0.1752461549551563,-0.40771772191728256,0.5827338427340262,0.9767096602662304,-0.4716729086457455,-0.293296319626925,-0.6686780158662436,0.4112966084101453,0.4584842047637009,-0.6884114537876362,0.22594400288664712,0.5724678037813578,0.7882117321789324,0.07300637902310676,1.0391571322177442,-0.1895393998981119,0.446064297170493,0.9362090453149146,0.408323326285359,-0.6552560150132212,1.0082280736718925,0.7501213024315674,0.5370395068967445,0.11483716844585697,0.9245777869489566,0.48220779895952776,0.13439267408942643,-0.06456667671530238,-0.042025234881286594,-0.10408239570449282,0.2612475826718268,-0.7134662577085534,0.05367780793829951,0.6534434016359089,0.03376716255103573,0.4263277780278282,0.29592525852567453,-0.3178854883994382,0.6650091516583468,0.946592810408125,0.08064052902394026,-0.015628560485785616,0.5940300865393836,-0.45853762158981537,-0.071734443688709,-0.4965733992767677,0.621803375755002,0.9543685127034427,-0.6940471390262392,0.5861537680571944,0.6535365016081555,-0.26570981322415915,-0.8392784413861533,0.8624301674621337,-0.013099114802715972]]},"weights_ho":{"rows":5,"cols":8,"data":[[-0.3634553963753542,-0.5687609701650628,-0.17443692341792763,-0.6795733530039164,0.5109886168172897,-1.245131825784024,-0.8303315602746745,-0.5927550118219221],[0.3171703256676451,-1.293141167753871,-0.1962386671500274,0.2758711441588609,0.07734655614738173,-0.6561584815111761,-0.8046479655937675,-1.114013360341635],[-1.1988456771507068,-0.4543145815884693,-1.0262781456191188,-0.9313154017179197,-0.6240875961973719,0.10438966508673798,-0.9762620712075236,0.3160410676765819],[1.1029362402331058,-0.36532379376802976,0.8210234948415759,-0.8085239749405776,-0.2145755052703947,0.7329512780932714,0.8346812557537838,0.9456799918175548],[-0.21372114073098153,0.0774099860677126,-0.48297968717531914,0.6026174901801339,0.9236703015476058,-0.7278208981349945,-1.051297227984427,-0.41895062170723846]]},"bias_h":{"rows":8,"cols":1,"data":[[-0.8497507018843222],[0.6600904201991896],[-0.2400979155195099],[-0.647207638079739],[-0.867584264546113],[-0.42567917002463745],[-0.14267791962347123],[0.3233582180080234]]},"bias_o":{"rows":5,"cols":1,"data":[[0.40426391505397774],[0.3794962087979261],[-0.14107149411447967],[-0.6409085047240766],[-0.6006772992197333]]},"l_rate":0.01}