{"weights_ih":{"rows":8,"cols":56,"data":[[0.366860004963583,0.9674617911714319,-1.0127402054903871,1.0421448617117697,-1.2138704358647223,0.02682236022634211,-0.11204265085395476,0.4480761244808113,0.6882220702782672,0.5262732563288028,-1.136426460791988,-0.1547802052095391,-0.9626435900160664,-0.2304190215127237,-1.227914267806024,-0.9645143405310941,-1.1594123806852,0.2769628130644956,0.16158166369460006,0.6676305785253532,0.5311260290400966,0.6469738081859527,-0.23998636974735685,0.25860607231622695,-0.4751737473724229,0.7647885270343538,-0.7557499613493371,-0.1426162424176327,0.5201913080335596,-0.42314584528243626,0.6783293023333049,-0.4168226410134433,-1.045215093499412,1.1550434773986438,-1.101828974616815,0.07453534208779738,-0.18880281563743198,0.07787136800270249,-0.44286420259658865,-0.13306302723700272,-0.3496326909052457,0.3343297788273143,0.08334461929368188,-0.4615881204773646,0.37418639420995586,-0.7758394430359038,0.3549700202320936,-0.3701607126588821,1.029464145254569,-0.42112481857289263,0.040164179417476006,-0.8561649366598113,1.9834066800454342,0.6580589491726428,0.22112797899270306,-0.8051844934641064],[-0.1884842259512086,-0.16143514201168793,0.37255729094082757,-1.1210561339588834,0.4578545302336541,-1.068108882194623,-1.1722933601730918,-0.9160338220776034,0.13363175083037862,0.14798949531383793,-0.5795873158169622,0.06772254256323187,0.1479286517038489,-0.4127852820418638,-0.057761364841006795,0.786355320796628,-0.7027110434897482,1.1265525287934228,0.13399450005196684,1.2429725477592044,-0.39512606289986557,-0.33265188796252126,-0.21486469661140664,-0.07075975040166306,-0.33688793504331077,1.079015397576716,0.9267743882777633,-0.5291533316130609,0.059063110529671795,1.2413152735200323,0.27065076014118145,0.17643674213906516,1.2390065956469538,-0.2767130161993241,0.7317797414503335,1.2387984895285602,0.907417963837201,-0.5938325935699679,0.42476065352201337,0.9556895089879734,0.5872447706701551,1.1424331806220156,0.28024732709778943,0.9202939262593222,0.15252679981135875,0.8165490487106818,-1.4265043499659416,0.09960804852138955,-0.2641825969598298,0.33883770930855417,-0.43292759451341617,-0.2544723508158743,-0.5832921541620701,0.9848400536866617,-0.7240216806126727,-0.1976360388409868],[0.23418036893874924,-0.29883419140132195,-1.3043021495830764,0.22906722777916347,-0.7308962346300649,0.42226155895790396,-0.048366424829114775,0.3760167652693455,-1.031660077409584,0.8352900587014548,0.441990498906701,-0.45537252789739535,-0.3741288279105422,-0.33160603272337336,-0.4373444150962399,-1.0585270947433412,-1.064582758110955,-0.5136362784377465,-0.0804489649588121,0.635275823157649,-0.9743573628876966,0.4100451991983963,-0.10394418688406162,0.7159009127396567,0.7783941522280564,0.8653704484918715,-0.003376678291333781,-0.5022189094655991,-0.2904148891118368,-0.5383549642822886,0.021540108210251336,-0.10288298831371588,-0.30388955394833533,0.5174568069217627,0.5126514607874239,0.03230500716052184,0.20861821586367874,0.030667804358748187,0.30081124969700046,0.7488581740287418,-1.2881460664032183,-0.20454248383838197,-0.3818982830818075,-0.5266470955362714,-0.6549321019869784,0.8476994485148021,0.8420038067837328,0.2743455681260013,0.5899813435254334,-0.8334991816438302,1.0032435139541411,-0.06282510809701973,1.3153578831578325,-0.3074992837439242,-0.39924127864402414,0.3581807372488395],[0.6933411226346613,-0.5498261286474169,0.6021450731591822,0.7164274973840569,0.16056651313719597,0.654850712451382,0.5096325446530526,0.34301893243570186,0.4310088213407124,-0.014599206399418672,0.7616879260203016,0.8013271353327027,-0.08898019752766784,-0.0584122328268677,0.1091835151233626,-0.8136302977796794,0.5868670152931758,-0.8934772090206705,1.1572267906913107,-0.1796661125045644,1.2756157366192884,-1.0599306040929497,-0.09227525021273883,-0.41784756839093934,-0.6743881238332576,-0.6650561286352573,0.032739383769095964,-0.04682795537276079,-0.3477484344711704,-1.0533937883362707,0.4692014292594102,-1.0011339642552017,0.44422334630793586,-0.1282498451204878,0.22781123510980442,-1.2786027308094774,0.17385467421891396,-0.0654555016163703,-0.27491558458026405,0.2009993695598712,1.1554540164556266,0.4517736214673547,0.6251412489308549,0.335021552279401,0.6770601299738327,-0.8520428344572448,-0.34438008635514705,-1.025773499295403,0.7190387157402867,0.40722244723735124,-0.29880017287563304,0.031088896404967942,-0.4653467987266943,-0.6900529782589799,-0.9198902640315895,0.44276716426592655],[-0.15133504522862526,0.9149565398427174,-0.6492300507045329,0.45883484394529767,0.16402439931311252,1.0663570327040381,0.3077430682696321,0.38062896672491786,-0.2839095050609732,0.7161933532957739,0.7139009708977744,0.33932240959923177,0.3674040405425108,0.4225204685728014,-0.6765994346522671,-0.03688700302979178,-0.1688919488877761,0.5203572665849707,0.49001149995154986,0.4049964000933616,0.4662933743434225,-0.21555827067909447,-0.4136024956833495,0.9627714779717352,-0.4418884924471,0.5878162147503876,-0.6035693677361385,-0.6156148739176436,-0.024158143853197943,-0.10878216858782296,-0.22289691658322927,-0.5458355798287938,0.3711530861250731,-0.680302798186075,0.5686723509704708,0.6200343434377216,0.38660131870575265,-0.6442725315516136,-0.6163500485466449,-0.590721452616059,0.5101321198948257,0.4692219360294772,-0.438760066443498,-0.23184517969536508,-0.38782795495660777,0.15179345019880977,-0.6447142090781527,0.42331088558213975,0.2725457880448507,0.7028812874989566,1.0786720689625555,0.9858984150589757,0.6605836887734212,0.7178068470796588,0.4712036936749179,-0.5086012951737817],[0.6911617838952758,-0.5664102395333013,0.29931627208380696,-0.056006738259862666,0.9551726285172596,-0.8572216626464657,-0.08857130621688646,-0.6276696736129828,0.7837533378732009,-0.5511742405198057,0.9992275863231432,0.19511948487044936,0.5706473774642293,-0.9326004712028735,0.8792304330354965,0.349149766980605,-0.2031368290409456,-0.47944130908807586,0.5905544715660119,0.2356945662693386,-0.33259333169259897,-0.2505947154112607,-0.14708439897177517,-1.1710202805595986,0.19212695947003125,0.36186993544725,0.402620153890872,0.7162595887759647,0.8588818298088551,-0.013992748179188698,0.0650783213514974,0.7862750368996677,0.5864458275809635,-0.2833462994834511,0.7019454973015885,-0.2618820600114107,0.37425477645179084,-0.5501668121287447,-0.35212132463923024,-0.49417402974840224,0.5359256953454811,-0.6862064202091429,0.5781370445362852,-0.8682814631389869,0.6183122264136521,-0.3308638532655944,-0.5971339898465218,0.4554503746258216,-0.4890903964210454,-0.8795287901520833,-0.35068065109627433,-0.6789295109210691,0.20558842671858532,0.7913455080100319,0.21508274240247022,0.6186014430684155],[0.1902825058058673,-0.48794460826941405,0.5470287514306527,-0.9445755597546723,0.2463302869277495,-0.40643765269965043,-0.5035823516296387,-0.8614548604856386,-0.46076445418785755,-0.09025732262045065,-0.3488553340639665,-0.21384010672325257,0.8826171087487705,0.6935719810270375,0.15120801151799934,0.15472779183987578,-0.6095611218669168,-1.0493124400374358,-0.4083369229007083,0.3213729834049524,0.3323480556642245,-0.10395625296616472,0.7032084770553972,-0.3541456225253168,-0.054897163830939046,-0.3600168321106774,0.23907360306139624,0.7425172325825192,-0.703386601826562,-0.5056139659117492,0.6249784478567126,-0.05410926217595389,-0.3148448133776312,0.2093269988947668,-0.9610181860514551,-0.43451323495404776,0.6917356815880317,-0.4432457056596646,0.13644616344540772,0.23507499602404158,-0.5693398859489336,0.605401145843001,0.5549832603956164,0.75773434943311,0.15760209928918326,-0.2796921185553179,-0.1916344010966686,-0.547840182355865,0.035845182591573814,0.9507736564515595,-0.37274126155940734,0.5308731735287724,-0.659316502983353,-0.5265139349656666,0.40374327542188515,-0.24572632661068816],[0.1032935934482879,1.0188704626816127,-0.683321771943959,-0.5546173565219581,-0.13133347443124327,0.890788055508118,-0.503267840664655,0.9063711914540253,-0.31348010840633844,0.01019660136280535,-0.5896059951933011,-0.7145177782673469,0.4616747857162977,-0.695639994726016,0.882388123581708,-0.9468535619266849,0.38532348005041495,0.0038197601149403022,-0.8798239833921763,-0.024883990562076314,-0.3651319436480065,-0.5196935793511676,-0.10658155234114902,-0.8426022669297628,0.06284816222338249,-0.6186662850931421,0.666188539261271,-1.0124205432166442,-0.13587331778504513,0.1292251653143874,-0.60711213815596,0.19771236465647146,-0.9029163409359166,-1.0433253341813034,-0.3437371104758208,-0.49339260328988693,0.40924880662547203,-0.7987832279937379,-0.1224479385452353,-0.6632015137509985,-0.4314151288214052,-0.741516150271228,0.0754255412762591,0.713803545846677,0.9756356275352583,-0.7211535408531635,1.5811455023211516,-0.6456584838357392,1.0551349012295,-0.5990695585051132,-0.44084151438592034,-0.04939333211017108,1.3057638706363213,0.3075021655989195,1.1752072472415476,-0.8538593298896939]]},"weights_ho":{"rows":5,"cols":8,"data":[[1.3111416077094664,0.17036308626908347,0.8449033006420423,-1.4742443859997632,-0.5605215306845283,-0.5628265140777164,-0.7448507393101529,-0.6833360312699783],[-0.8867729862453393,0.0993848471562776,0.36948602442896766,-0.5935251288028698,-0.656881012887007,-1.0132917025858368,-0.8296648519887377,0.34666346609186155],[-1.342925500738771,-0.13854307664694673,-1.3034217687807317,0.9176223134175282,-0.6260255053633301,0.923457806724688,-0.3952617031474286,-1.8700965106336003],[0.9424749881692434,-2.3857361746132852,-0.33114137303749025,0.777413044330001,-0.3145590044576928,0.19123125096339244,0.5369940452205456,0.5233102323471561],[-0.4051485012308019,-0.4505141911856848,-0.4934325438657275,-0.8508059729705698,-1.1023633928822485,-0.7168547972673008,0.3176508267786681,0.2889037152372512]]},"bias_h":{"rows":8,"cols":1,"data":[[0.8207810500919314],[-0.028863151600018053],[0.4946726377451457],[0.06937439944740725],[-0.1955154511318576],[0.7553864310086646],[-0.6674664870068104],[1.2162844683062695]]},"bias_o":{"rows":5,"cols":1,"data":[[-0.1296796345604322],[-1.2730455967982706],[0.7860286836393516],[-0.008097997120902851],[-0.27870179101769554]]},"l_rate":0.01}